[Text(0.43548387096774194, 0.9375, 'node #0\nsize_area <= 191.995\nsquared_error = 5867.207\nsamples = 100.0%\nvalue = 1342.674'), Text(0.1975806451612903, 0.8125, 'node #1\nsize_area <= 142.155\nsquared_error = 2428.921\nsamples = 25.2%\nvalue = 1426.776'), Text(0.12096774193548387, 0.6875, 'node #2\nsize_area <= 118.55\nsquared_error = 1702.817\nsamples = 19.7%\nvalue = 1435.628'), Text(0.08064516129032258, 0.5625, 'node #3\nequipment <= 0.5\nsquared_error = 1340.024\nsamples = 14.4%\nvalue = 1439.531'), Text(0.053763440860215055, 0.4375, 'node #4\nsize_area <= 107.015\nsquared_error = 1319.793\nsamples = 13.8%\nvalue = 1439.993'), Text(0.03225806451612903, 0.3125, 'node #5\nbeasthead <= 0.5\nsquared_error = 1299.776\nsamples = 10.9%\nvalue = 1438.87'), Text(0.021505376344086023, 0.1875, 'node #6\nsize_area <= 98.98\nsquared_error = 1305.935\nsamples = 10.5%\nvalue = 1438.255'), Text(0.010752688172043012, 0.0625, 'node #7\nsquared_error = 1352.144\nsamples = 9.3%\nvalue = 1439.184'), Text(0.03225806451612903, 0.0625, 'node #8\nsquared_error = 900.568\nsamples = 1.2%\nvalue = 1431.23'), Text(0.043010752688172046, 0.1875, 'node #9\nsquared_error = 831.015\nsamples = 0.4%\nvalue = 1455.852'), Text(0.07526881720430108, 0.3125, 'node #10\nbird <= 0.5\nsquared_error = 1372.224\nsamples = 2.9%\nvalue = 1444.179'), Text(0.06451612903225806, 0.1875, 'node #11\ndevice <= 0.5\nsquared_error = 1368.962\nsamples = 2.6%\nvalue = 1443.385'), Text(0.053763440860215055, 0.0625, 'node #12\nsquared_error = 1421.166\nsamples = 2.2%\nvalue = 1442.387'), Text(0.07526881720430108, 0.0625, 'node #13\nsquared_error = 1030.765\nsamples = 0.4%\nvalue = 1449.111'), Text(0.08602150537634409, 0.1875, 'node #14\nsquared_error = 1357.958\nsamples = 0.4%\nvalue = 1449.96'), Text(0.10752688172043011, 0.4375, 'node #15\nRound <= 0.5\nsquared_error = 1674.694\nsamples = 0.6%\nvalue = 1429.489'), Text(0.0967741935483871, 0.3125, 'node #16\nsquared_error = 1423.456\nsamples = 0.3%\nvalue = 1423.609'), Text(0.11827956989247312, 0.3125, 'node #17\nsquared_error = 1863.413\nsamples = 0.3%\nvalue = 1435.636'), Text(0.16129032258064516, 0.5625, 'node #18\nhuman <= 0.5\nsquared_error = 2546.044\nsamples = 5.2%\nvalue = 1424.854'), Text(0.15053763440860216, 0.4375, 'node #19\nbeast <= 0.5\nsquared_error = 2208.314\nsamples = 4.9%\nvalue = 1426.376'), Text(0.13978494623655913, 0.3125, 'node #20\nequipment <= 0.5\nsquared_error = 1876.354\nsamples = 4.3%\nvalue = 1428.265'), Text(0.12903225806451613, 0.1875, 'node #21\nsize_area <= 133.515\nsquared_error = 1711.027\nsamples = 3.9%\nvalue = 1430.044'), Text(0.11827956989247312, 0.0625, 'node #22\nsquared_error = 1854.255\nsamples = 3.3%\nvalue = 1427.909'), Text(0.13978494623655913, 0.0625, 'node #23\nsquared_error = 755.71\nsamples = 0.6%\nvalue = 1441.833'), Text(0.15053763440860216, 0.1875, 'node #24\nsquared_error = 3160.194\nsamples = 0.4%\nvalue = 1410.857'), Text(0.16129032258064516, 0.3125, 'node #25\nsquared_error = 4096.766\nsamples = 0.7%\nvalue = 1414.735'), Text(0.17204301075268819, 0.4375, 'node #26\nsquared_error = 7719.427\nsamples = 0.3%\nvalue = 1398.15'), Text(0.27419354838709675, 0.6875, 'node #27\nsymbol <= 0.5\nsquared_error = 3742.535\nsamples = 5.5%\nvalue = 1395.194'), Text(0.22580645161290322, 0.5625, 'node #28\nsize_area <= 164.145\nsquared_error = 4340.671\nsamples = 3.2%\nvalue = 1379.5'), Text(0.1935483870967742, 0.4375, 'node #29\nRound <= 0.5\nsquared_error = 4114.205\nsamples = 1.4%\nvalue = 1398.343'), Text(0.1827956989247312, 0.3125, 'node #30\nsquared_error = 3447.274\nsamples = 0.4%\nvalue = 1385.129'), Text(0.20430107526881722, 0.3125, 'node #31\nbeast <= 0.5\nsquared_error = 4302.35\nsamples = 1.0%\nvalue = 1404.368'), Text(0.1935483870967742, 0.1875, 'node #32\nobjects <= 0.5\nsquared_error = 4211.306\nsamples = 0.7%\nvalue = 1399.667'), Text(0.1827956989247312, 0.0625, 'node #33\nsquared_error = 4160.352\nsamples = 0.4%\nvalue = 1402.071'), Text(0.20430107526881722, 0.0625, 'node #34\nsquared_error = 4263.21\nsamples = 0.3%\nvalue = 1396.3'), Text(0.21505376344086022, 0.1875, 'node #35\nsquared_error = 4340.527\nsamples = 0.3%\nvalue = 1415.65'), Text(0.25806451612903225, 0.4375, 'node #36\nbeastbody <= 0.5\nsquared_error = 4032.843\nsamples = 1.8%\nvalue = 1365.039'), Text(0.24731182795698925, 0.3125, 'node #37\ndevice <= 0.5\nsquared_error = 4284.8\nsamples = 1.5%\nvalue = 1371.352'), Text(0.23655913978494625, 0.1875, 'node #38\nRound <= 0.5\nsquared_error = 4122.014\nsamples = 1.2%\nvalue = 1368.718'), Text(0.22580645161290322, 0.0625, 'node #39\nsquared_error = 4757.36\nsamples = 0.4%\nvalue = 1374.0'), Text(0.24731182795698925, 0.0625, 'node #40\nsquared_error = 3840.816\nsamples = 0.8%\nvalue = 1366.517'), Text(0.25806451612903225, 0.1875, 'node #41\nsquared_error = 4821.748\nsamples = 0.3%\nvalue = 1382.55'), Text(0.26881720430107525, 0.3125, 'node #42\nsquared_error = 1993.16\nsamples = 0.3%\nvalue = 1337.417'), Text(0.3225806451612903, 0.5625, 'node #43\nRound <= 0.5\nsquared_error = 2079.414\nsamples = 2.3%\nvalue = 1417.147'), Text(0.3010752688172043, 0.4375, 'node #44\nsize_area <= 166.465\nsquared_error = 1694.172\nsamples = 0.6%\nvalue = 1429.152'), Text(0.2903225806451613, 0.3125, 'node #45\nsquared_error = 1402.314\nsamples = 0.4%\nvalue = 1420.92'), Text(0.3118279569892473, 0.3125, 'node #46\nsquared_error = 1864.902\nsamples = 0.3%\nvalue = 1438.952'), Text(0.34408602150537637, 0.4375, 'node #47\nsize_area <= 165.325\nsquared_error = 2151.937\nsamples = 1.6%\nvalue = 1412.427'), Text(0.3333333333333333, 0.3125, 'node #48\nsquared_error = 2330.126\nsamples = 0.9%\nvalue = 1409.254'), Text(0.3548387096774194, 0.3125, 'node #49\nsquared_error = 1918.594\nsamples = 0.8%\nvalue = 1416.13'), Text(0.6733870967741935, 0.8125, 'node #50\nsize_area <= 492.12\nsquared_error = 3845.548\nsamples = 74.8%\nvalue = 1314.398'), Text(0.5147849462365591, 0.6875, 'node #51\npointedoval <= 0.5\nsquared_error = 2687.4\nsamples = 54.6%\nvalue = 1331.856'), Text(0.4596774193548387, 0.5625, 'node #52\ntexts <= 0.5\nsquared_error = 2471.486\nsamples = 48.3%\nvalue = 1339.139'), Text(0.41397849462365593, 0.4375, 'node #53\nshield <= 0.5\nsquared_error = 2351.717\nsamples = 46.2%\nvalue = 1336.535'), Text(0.3763440860215054, 0.3125, 'node #54\nsize_area <= 401.935\nsquared_error = 2415.529\nsamples = 31.3%\nvalue = 1329.836'), Text(0.3548387096774194, 0.1875, 'node #55\nstandingwoman <= 0.5\nsquared_error = 2171.75\nsamples = 25.4%\nvalue = 1334.651'), Text(0.34408602150537637, 0.0625, 'node #56\nsquared_error = 2170.477\nsamples = 24.5%\nvalue = 1333.573'), Text(0.3655913978494624, 0.0625, 'node #57\nsquared_error = 1341.111\nsamples = 0.9%\nvalue = 1363.523'), Text(0.3978494623655914, 0.1875, 'node #58\nfulllength <= 0.5\nsquared_error = 2936.638\nsamples = 5.8%\nvalue = 1308.831'), Text(0.3870967741935484, 0.0625, 'node #59\nsquared_error = 2849.63\nsamples = 4.6%\nvalue = 1302.134'), Text(0.40860215053763443, 0.0625, 'node #60\nsquared_error = 2427.857\nsamples = 1.2%\nvalue = 1334.753'), Text(0.45161290322580644, 0.3125, 'node #61\nscutiform <= 0.5\nsquared_error = 1926.001\nsamples = 14.9%\nvalue = 1350.594'), Text(0.44086021505376344, 0.1875, 'node #62\nsize_area <= 471.63\nsquared_error = 1834.682\nsamples = 14.6%\nvalue = 1351.955'), Text(0.43010752688172044, 0.0625, 'node #63\nsquared_error = 1791.184\nsamples = 12.5%\nvalue = 1349.919'), Text(0.45161290322580644, 0.0625, 'node #64\nsquared_error = 1922.082\nsamples = 2.1%\nvalue = 1364.074'), Text(0.46236559139784944, 0.1875, 'node #65\nsquared_error = 2031.068\nsamples = 0.3%\nvalue = 1286.5'), Text(0.5053763440860215, 0.4375, 'node #66\nchristogram <= 0.5\nsquared_error = 1730.97\nsamples = 2.1%\nvalue = 1395.649'), Text(0.4946236559139785, 0.3125, 'node #67\nsize_area <= 276.765\nsquared_error = 1566.32\nsamples = 1.7%\nvalue = 1400.774'), Text(0.4838709677419355, 0.1875, 'node #68\nsize_area <= 212.07\nsquared_error = 1488.328\nsamples = 1.2%\nvalue = 1409.071'), Text(0.4731182795698925, 0.0625, 'node #69\nsquared_error = 1689.417\nsamples = 0.4%\nvalue = 1406.742'), Text(0.4946236559139785, 0.0625, 'node #70\nsquared_error = 1365.68\nsamples = 0.7%\nvalue = 1410.434'), Text(0.5053763440860215, 0.1875, 'node #71\nsquared_error = 1281.928\nsamples = 0.6%\nvalue = 1383.35'), Text(0.5161290322580645, 0.3125, 'node #72\nsquared_error = 1812.469\nsamples = 0.4%\nvalue = 1372.111'), Text(0.5698924731182796, 0.5625, 'node #73\nradial <= 0.5\nsquared_error = 793.898\nsamples = 6.3%\nvalue = 1275.744'), Text(0.5483870967741935, 0.4375, 'node #74\nstanding <= 0.5\nsquared_error = 804.181\nsamples = 5.4%\nvalue = 1273.63'), Text(0.5376344086021505, 0.3125, 'node #75\nsize_area <= 468.415\nsquared_error = 764.06\nsamples = 5.1%\nvalue = 1274.741'), Text(0.5268817204301075, 0.1875, 'node #76\nobjects <= 0.5\nsquared_error = 694.196\nsamples = 4.6%\nvalue = 1273.632'), Text(0.5161290322580645, 0.0625, 'node #77\nsquared_error = 691.838\nsamples = 4.2%\nvalue = 1272.96'), Text(0.5376344086021505, 0.0625, 'node #78\nsquared_error = 665.553\nsamples = 0.4%\nvalue = 1280.586'), Text(0.5483870967741935, 0.1875, 'node #79\nsquared_error = 1313.073\nsamples = 0.5%\nvalue = 1285.471'), Text(0.5591397849462365, 0.3125, 'node #80\nsquared_error = 1107.673\nsamples = 0.3%\nvalue = 1254.429'), Text(0.5913978494623656, 0.4375, 'node #81\nsize_area <= 371.425\nsquared_error = 524.014\nsamples = 0.9%\nvalue = 1289.049'), Text(0.5806451612903226, 0.3125, 'node #82\nsquared_error = 545.387\nsamples = 0.3%\nvalue = 1294.25'), Text(0.6021505376344086, 0.3125, 'node #83\nsquared_error = 493.957\nsamples = 0.6%\nvalue = 1286.512'), Text(0.831989247311828, 0.6875, 'node #84\nshield <= 0.5\nsquared_error = 3932.265\nsamples = 20.3%\nvalue = 1267.364'), Text(0.7446236559139785, 0.5625, 'node #85\nsize_area <= 746.72\nsquared_error = 2339.445\nsamples = 17.4%\nvalue = 1252.704'), Text(0.6666666666666666, 0.4375, 'node #86\nsize_area <= 628.445\nsquared_error = 1598.647\nsamples = 9.6%\nvalue = 1270.344'), Text(0.6236559139784946, 0.3125, 'node #87\nradial <= 0.5\nsquared_error = 1485.967\nsamples = 6.1%\nvalue = 1276.853'), Text(0.6021505376344086, 0.1875, 'node #88\nroundedoval <= 0.5\nsquared_error = 1727.772\nsamples = 4.0%\nvalue = 1271.53'), Text(0.5913978494623656, 0.0625, 'node #89\nsquared_error = 1394.062\nsamples = 3.5%\nvalue = 1268.463'), Text(0.6129032258064516, 0.0625, 'node #90\nsquared_error = 3542.536\nsamples = 0.5%\nvalue = 1293.086'), Text(0.6451612903225806, 0.1875, 'node #91\nsize_area <= 533.815\nsquared_error = 875.72\nsamples = 2.1%\nvalue = 1286.893'), Text(0.6344086021505376, 0.0625, 'node #92\nsquared_error = 611.645\nsamples = 0.6%\nvalue = 1291.786'), Text(0.6559139784946236, 0.0625, 'node #93\nsquared_error = 966.289\nsamples = 1.5%\nvalue = 1284.972'), Text(0.7096774193548387, 0.3125, 'node #94\nanimal <= 0.5\nsquared_error = 1595.743\nsamples = 3.6%\nvalue = 1259.281'), Text(0.6881720430107527, 0.1875, 'node #95\nstylizedlily <= 0.5\nsquared_error = 1726.818\nsamples = 2.8%\nvalue = 1263.675'), Text(0.6774193548387096, 0.0625, 'node #96\nsquared_error = 1969.248\nsamples = 2.0%\nvalue = 1270.407'), Text(0.6989247311827957, 0.0625, 'node #97\nsquared_error = 572.087\nsamples = 0.7%\nvalue = 1244.904'), Text(0.7311827956989247, 0.1875, 'node #98\nsize_area <= 679.305\nsquared_error = 827.718\nsamples = 0.8%\nvalue = 1243.821'), Text(0.7204301075268817, 0.0625, 'node #99\nsquared_error = 1097.99\nsamples = 0.4%\nvalue = 1248.714'), Text(0.7419354838709677, 0.0625, 'node #100\nsquared_error = 509.566\nsamples = 0.4%\nvalue = 1238.929'), Text(0.8225806451612904, 0.4375, 'node #101\nriding <= 0.5\nsquared_error = 2394.683\nsamples = 7.8%\nvalue = 1230.879'), Text(0.7956989247311828, 0.3125, 'node #102\nanimal <= 0.5\nsquared_error = 2368.407\nsamples = 6.4%\nvalue = 1238.575'), Text(0.7741935483870968, 0.1875, 'node #103\nsize_area <= 1403.64\nsquared_error = 2798.066\nsamples = 4.2%\nvalue = 1247.103'), Text(0.7634408602150538, 0.0625, 'node #104\nsquared_error = 1647.518\nsamples = 3.6%\nvalue = 1242.452'), Text(0.7849462365591398, 0.0625, 'node #105\nsquared_error = 8031.898\nsamples = 0.7%\nvalue = 1271.02'), Text(0.8172043010752689, 0.1875, 'node #106\nsize_area <= 1295.03\nsquared_error = 1118.503\nsamples = 2.2%\nvalue = 1222.013'), Text(0.8064516129032258, 0.0625, 'node #107\nsquared_error = 1114.847\nsamples = 1.7%\nvalue = 1227.5'), Text(0.8279569892473119, 0.0625, 'node #108\nsquared_error = 530.964\nsamples = 0.4%\nvalue = 1200.065'), Text(0.8494623655913979, 0.3125, 'node #109\nsize_area <= 1464.375\nsquared_error = 901.844\nsamples = 1.4%\nvalue = 1194.323'), Text(0.8387096774193549, 0.1875, 'node #110\nsquared_error = 687.359\nsamples = 0.3%\nvalue = 1212.875'), Text(0.8602150537634409, 0.1875, 'node #111\nsize_area <= 1924.62\nsquared_error = 820.37\nsamples = 1.0%\nvalue = 1188.139'), Text(0.8494623655913979, 0.0625, 'node #112\nsquared_error = 350.278\nsamples = 0.4%\nvalue = 1192.96'), Text(0.8709677419354839, 0.0625, 'node #113\nsquared_error = 1051.478\nsamples = 0.7%\nvalue = 1185.574'), Text(0.9193548387096774, 0.5625, 'node #114\nsize_area <= 683.69\nsquared_error = 4361.588\nsamples = 2.9%\nvalue = 1356.547'), Text(0.8817204301075269, 0.4375, 'node #115\nsize_area <= 586.28\nsquared_error = 3958.338\nsamples = 1.2%\nvalue = 1340.576'), Text(0.8709677419354839, 0.3125, 'node #116\nsquared_error = 2773.647\nsamples = 0.6%\nvalue = 1349.45'), Text(0.8924731182795699, 0.3125, 'node #117\nsize_area <= 638.135\nsquared_error = 4879.192\nsamples = 0.6%\nvalue = 1332.689'), Text(0.8817204301075269, 0.1875, 'node #118\nsquared_error = 4470.06\nsamples = 0.3%\nvalue = 1324.2'), Text(0.9032258064516129, 0.1875, 'node #119\nsquared_error = 5102.73\nsamples = 0.4%\nvalue = 1339.48'), Text(0.956989247311828, 0.4375, 'node #120\nsize_area <= 881.61\nsquared_error = 4335.997\nsamples = 1.7%\nvalue = 1368.051'), Text(0.9354838709677419, 0.3125, 'node #121\nsize_area <= 730.815\nsquared_error = 1809.835\nsamples = 0.9%\nvalue = 1375.727'), Text(0.9247311827956989, 0.1875, 'node #122\nsquared_error = 1770.835\nsamples = 0.6%\nvalue = 1370.512'), Text(0.946236559139785, 0.1875, 'node #123\nsquared_error = 1756.042\nsamples = 0.4%\nvalue = 1384.28'), Text(0.978494623655914, 0.3125, 'node #124\nsize_area <= 1164.35\nsquared_error = 7372.559\nsamples = 0.7%\nvalue = 1358.308'), Text(0.967741935483871, 0.1875, 'node #125\nsquared_error = 7012.071\nsamples = 0.4%\nvalue = 1344.839'), Text(0.989247311827957, 0.1875, 'node #126\nsquared_error = 7241.583\nsamples = 0.3%\nvalue = 1378.19')]